<?xml version="1.0"?>
<opencv_storage>
<cascade>
  <stageType>BOOST</stageType>
  <featureType>HAAR</featureType>
  <height>30</height>
  <width>30</width>
  <stageParams>
    <boostType>GAB</boostType>
    <minHitRate>9.9500000476837158e-01</minHitRate>
    <maxFalseAlarm>5.0000000000000000e-01</maxFalseAlarm>
    <weightTrimRate>9.4999999999999996e-01</weightTrimRate>
    <maxDepth>1</maxDepth>
    <maxWeakCount>100</maxWeakCount></stageParams>
  <featureParams>
    <maxCatCount>0</maxCatCount>
    <featSize>1</featSize>
    <mode>BASIC</mode></featureParams>
  <stageNum>1</stageNum>
  <stages>
    <!-- stage 0 -->
    <_>
      <maxWeakCount>3</maxWeakCount>
      <stageThreshold>-6.8924754858016968e-01</stageThreshold>
      <weakClassifiers>
        <_>
          <internalNodes>
            0 -1 2 -2.9723456129431725e-02</internalNodes>
          <leafValues>
            8.8130968809127808e-01 -9.4865524768829346e-01</leafValues></_>
        <_>
          <internalNodes>
            0 -1 1 -7.3263831436634064e-02</internalNodes>
          <leafValues>
            8.4668463468551636e-01 -7.2666907310485840e-01</leafValues></_>
        <_>
          <internalNodes>
            0 -1 0 -1.6436957594123669e-05</internalNodes>
          <leafValues>
            9.8607677221298218e-01 -5.7127642631530762e-01</leafValues></_></weakClassifiers></_></stages>
  <features>
    <_>
      <rects>
        <_>
          0 0 5 10 -1.</_>
        <_>
          0 5 5 5 2.</_></rects>
      <tilted>0</tilted></_>
    <_>
      <rects>
        <_>
          11 20 15 3 -1.</_>
        <_>
          11 21 15 1 2.</_></rects>
      <tilted>0</tilted></_>
    <_>
      <rects>
        <_>
          15 16 3 7 -1.</_>
        <_>
          16 16 1 7 2.</_></rects>
      <tilted>0</tilted></_></features></cascade>
</opencv_storage>
