<?xml version="1.0"?>
<opencv_storage>
<cascade>
  <stageType>BOOST</stageType>
  <featureType>HAAR</featureType>
  <height>30</height>
  <width>30</width>
  <stageParams>
    <boostType>GAB</boostType>
    <minHitRate>9.9500000476837158e-01</minHitRate>
    <maxFalseAlarm>5.0000000000000000e-01</maxFalseAlarm>
    <weightTrimRate>9.4999999999999996e-01</weightTrimRate>
    <maxDepth>1</maxDepth>
    <maxWeakCount>100</maxWeakCount></stageParams>
  <featureParams>
    <maxCatCount>0</maxCatCount>
    <featSize>1</featSize>
    <mode>BASIC</mode></featureParams>
  <stageNum>1</stageNum>
  <stages>
    <!-- stage 0 -->
    <_>
      <maxWeakCount>3</maxWeakCount>
      <stageThreshold>-8.2706803083419800e-01</stageThreshold>
      <weakClassifiers>
        <_>
          <internalNodes>
            0 -1 1 -3.3744618296623230e-02</internalNodes>
          <leafValues>
            9.4718056917190552e-01 -9.1845977306365967e-01</leafValues></_>
        <_>
          <internalNodes>
            0 -1 2 -7.8946001827716827e-02</internalNodes>
          <leafValues>
            8.1563085317611694e-01 -8.7234789133071899e-01</leafValues></_>
        <_>
          <internalNodes>
            0 -1 0 1.7133679648395628e-05</internalNodes>
          <leafValues>
            -6.9104588031768799e-01 9.6373963356018066e-01</leafValues></_></weakClassifiers></_></stages>
  <features>
    <_>
      <rects>
        <_>
          0 10 6 11 -1.</_>
        <_>
          3 10 3 11 2.</_></rects>
      <tilted>0</tilted></_>
    <_>
      <rects>
        <_>
          15 16 3 7 -1.</_>
        <_>
          16 16 1 7 2.</_></rects>
      <tilted>0</tilted></_>
    <_>
      <rects>
        <_>
          15 17 9 6 -1.</_>
        <_>
          18 17 3 6 2.</_></rects>
      <tilted>0</tilted></_></features></cascade>
</opencv_storage>
